digraph Tree {
node [shape=box, style="filled", color="black"] ;
0 [label="WIRELESS_USERS <= 22.5\ngini = 0.5\nsamples = 14956\nvalue = [7428, 7528]\nclass = 1", fillcolor="#fcfeff"] ;
1 [label="LAPTOPS <= 75.0\ngini = 0.5\nsamples = 14339\nvalue = [7166, 7173]\nclass = 1", fillcolor="#ffffff"] ;
0 -> 1 [labeldistance=2.5, labelangle=45, headlabel="True"] ;
2 [label="gini = 0.5\nsamples = 14208\nvalue = [7086, 7122]\nclass = 1", fillcolor="#feffff"] ;
1 -> 2 ;
3 [label="gini = 0.475\nsamples = 131\nvalue = [80, 51]\nclass = 0", fillcolor="#f6d1b7"] ;
1 -> 3 ;
4 [label="WIRELESS_USERS <= 26.5\ngini = 0.489\nsamples = 617\nvalue = [262, 355]\nclass = 1", fillcolor="#cbe5f8"] ;
0 -> 4 [labeldistance=2.5, labelangle=-45, headlabel="False"] ;
5 [label="gini = 0.405\nsamples = 85\nvalue = [24, 61]\nclass = 1", fillcolor="#87c4ef"] ;
4 -> 5 ;
6 [label="gini = 0.494\nsamples = 532\nvalue = [238, 294]\nclass = 1", fillcolor="#d9ecfa"] ;
4 -> 6 ;
}