digraph Tree {
node [shape=box, style="filled", color="black"] ;
0 [label="INTERNET_USERS_5 to 9 <= 0.5\ngini = 0.396\nsamples = 14956\nvalue = [499, 893, 11494, 381, 405, 1284]\nclass = 2", fillcolor="#6beca1"] ;
1 [label="ENT_LAPTOP_<250 <= 0.5\ngini = 0.73\nsamples = 4436\nvalue = [369, 633, 1878, 217, 277, 1062]\nclass = 2", fillcolor="#cff9e1"] ;
0 -> 1 [labeldistance=2.5, labelangle=45, headlabel="True"] ;
2 [label="EMPLE <= 0.5\ngini = 0.499\nsamples = 857\nvalue = [51, 1, 149, 17, 56, 583]\nclass = 5", fillcolor="#ef86c3"] ;
1 -> 2 ;
3 [label="HARDWARE_BUDGET <= 4185.5\ngini = 0.456\nsamples = 56\nvalue = [39, 0, 13, 0, 0, 4]\nclass = 0", fillcolor="#efb387"] ;
2 -> 3 ;
4 [label="gini = 0.0\nsamples = 4\nvalue = [0, 0, 4, 0, 0, 0]\nclass = 2", fillcolor="#39e581"] ;
3 -> 4 ;
5 [label="SICGRP_WHL-RT <= 0.5\ngini = 0.402\nsamples = 52\nvalue = [39, 0, 9, 0, 0, 4]\nclass = 0", fillcolor="#eda775"] ;
3 -> 5 ;
6 [label="YEAR_EST_1997.0 <= 0.5\ngini = 0.345\nsamples = 49\nvalue = [39, 0, 6, 0, 0, 4]\nclass = 0", fillcolor="#eb9e67"] ;
5 -> 6 ;
7 [label="gini = 0.297\nsamples = 47\nvalue = [39, 0, 4, 0, 0, 4]\nclass = 0", fillcolor="#ea985e"] ;
6 -> 7 ;
8 [label="gini = 0.0\nsamples = 2\nvalue = [0, 0, 2, 0, 0, 0]\nclass = 2", fillcolor="#39e581"] ;
6 -> 8 ;
9 [label="gini = 0.0\nsamples = 3\nvalue = [0, 0, 3, 0, 0, 0]\nclass = 2", fillcolor="#39e581"] ;
5 -> 9 ;
10 [label="DESKTOPS <= 56.5\ngini = 0.443\nsamples = 801\nvalue = [12, 1, 136, 17, 56, 579]\nclass = 5", fillcolor="#ee7bbe"] ;
2 -> 10 ;
11 [label="SICGRP_EDUC <= 0.5\ngini = 0.532\nsamples = 493\nvalue = [4, 1, 105, 16, 51, 316]\nclass = 5", fillcolor="#f193ca"] ;
10 -> 11 ;
12 [label="EMPLE <= 19.5\ngini = 0.513\nsamples = 377\nvalue = [4, 1, 53, 16, 51, 252]\nclass = 5", fillcolor="#ef85c3"] ;
11 -> 12 ;
13 [label="gini = 0.3\nsamples = 155\nvalue = [3, 0, 20, 0, 4, 128]\nclass = 5", fillcolor="#ea61b1"] ;
12 -> 13 ;
14 [label="gini = 0.616\nsamples = 222\nvalue = [1, 1, 33, 16, 47, 124]\nclass = 5", fillcolor="#f4a8d4"] ;
12 -> 14 ;
15 [label="ENT_LAPTOP_250 to 499 <= 0.5\ngini = 0.495\nsamples = 116\nvalue = [0, 0, 52, 0, 0, 64]\nclass = 5", fillcolor="#fadaed"] ;
11 -> 15 ;
16 [label="gini = 0.0\nsamples = 5\nvalue = [0, 0, 0, 0, 0, 5]\nclass = 5", fillcolor="#e5399d"] ;
15 -> 16 ;
17 [label="gini = 0.498\nsamples = 111\nvalue = [0, 0, 52, 0, 0, 59]\nclass = 5", fillcolor="#fce8f3"] ;
15 -> 17 ;
18 [label="YEAR_EST_1996.0 <= 0.5\ngini = 0.26\nsamples = 308\nvalue = [8, 0, 31, 1, 5, 263]\nclass = 5", fillcolor="#e959ad"] ;
10 -> 18 ;
19 [label="LAPTOPS <= 17.5\ngini = 0.242\nsamples = 303\nvalue = [6, 0, 29, 1, 5, 262]\nclass = 5", fillcolor="#e957ac"] ;
18 -> 19 ;
20 [label="gini = 0.573\nsamples = 25\nvalue = [2, 0, 6, 1, 1, 15]\nclass = 5", fillcolor="#f3a1d1"] ;
19 -> 20 ;
21 [label="gini = 0.203\nsamples = 278\nvalue = [4, 0, 23, 0, 4, 247]\nclass = 5", fillcolor="#e851a9"] ;
19 -> 21 ;
22 [label="LAPTOPS <= 58.5\ngini = 0.64\nsamples = 5\nvalue = [2, 0, 2, 0, 0, 1]\nclass = 0", fillcolor="#ffffff"] ;
18 -> 22 ;
23 [label="gini = 0.0\nsamples = 2\nvalue = [0, 0, 2, 0, 0, 0]\nclass = 2", fillcolor="#39e581"] ;
22 -> 23 ;
24 [label="gini = 0.444\nsamples = 3\nvalue = [2, 0, 0, 0, 0, 1]\nclass = 0", fillcolor="#f2c09c"] ;
22 -> 24 ;
25 [label="EMPLE <= 0.5\ngini = 0.703\nsamples = 3579\nvalue = [318, 632, 1729, 200, 221, 479]\nclass = 2", fillcolor="#b5f5d0"] ;
1 -> 25 ;
26 [label="IT_BUDGET <= 48015.5\ngini = 0.514\nsamples = 529\nvalue = [285, 5, 234, 1, 1, 3]\nclass = 0", fillcolor="#fbe9dd"] ;
25 -> 26 ;
27 [label="IT_BUDGET <= 20504.0\ngini = 0.485\nsamples = 221\nvalue = [88, 1, 132, 0, 0, 0]\nclass = 2", fillcolor="#bdf6d5"] ;
26 -> 27 ;
28 [label="SICGRP_SVCS <= 0.5\ngini = 0.499\nsamples = 100\nvalue = [52, 0, 48, 0, 0, 0]\nclass = 0", fillcolor="#fdf5f0"] ;
27 -> 28 ;
29 [label="gini = 0.492\nsamples = 87\nvalue = [49, 0, 38, 0, 0, 0]\nclass = 0", fillcolor="#f9e3d3"] ;
28 -> 29 ;
30 [label="gini = 0.355\nsamples = 13\nvalue = [3, 0, 10, 0, 0, 0]\nclass = 2", fillcolor="#74eda7"] ;
28 -> 30 ;
31 [label="HARDWARE_BUDGET <= 2224.5\ngini = 0.429\nsamples = 121\nvalue = [36, 1, 84, 0, 0, 0]\nclass = 2", fillcolor="#8ff0b8"] ;
27 -> 31 ;
32 [label="gini = 0.272\nsamples = 63\nvalue = [9, 1, 53, 0, 0, 0]\nclass = 2", fillcolor="#5eea98"] ;
31 -> 32 ;
33 [label="gini = 0.498\nsamples = 58\nvalue = [27, 0, 31, 0, 0, 0]\nclass = 2", fillcolor="#e5fcef"] ;
31 -> 33 ;
34 [label="HARDWARE_BUDGET <= 35363.0\ngini = 0.481\nsamples = 308\nvalue = [197, 4, 102, 1, 1, 3]\nclass = 0", fillcolor="#f3c5a4"] ;
26 -> 34 ;
35 [label="SICGRP_SVCS <= 0.5\ngini = 0.497\nsamples = 250\nvalue = [149, 4, 96, 1, 0, 0]\nclass = 0", fillcolor="#f6d4bb"] ;
34 -> 35 ;
36 [label="gini = 0.463\nsamples = 163\nvalue = [107, 3, 53, 0, 0, 0]\nclass = 0", fillcolor="#f2c19e"] ;
35 -> 36 ;
37 [label="gini = 0.522\nsamples = 87\nvalue = [42, 1, 43, 1, 0, 0]\nclass = 2", fillcolor="#fbfefc"] ;
35 -> 37 ;
38 [label="PC_BUDGET <= 92698.0\ngini = 0.301\nsamples = 58\nvalue = [48, 0, 6, 0, 1, 3]\nclass = 0", fillcolor="#ea995f"] ;
34 -> 38 ;
39 [label="gini = 0.174\nsamples = 43\nvalue = [39, 0, 2, 0, 1, 1]\nclass = 0", fillcolor="#e88d4c"] ;
38 -> 39 ;
40 [label="gini = 0.551\nsamples = 15\nvalue = [9, 0, 4, 0, 0, 2]\nclass = 0", fillcolor="#f3c6a5"] ;
38 -> 40 ;
41 [label="DESKTOPS <= 44.5\ngini = 0.684\nsamples = 3050\nvalue = [33, 627, 1495, 199, 220, 476]\nclass = 2", fillcolor="#b8f6d2"] ;
25 -> 41 ;
42 [label="SICGRP_EDUC <= 0.5\ngini = 0.63\nsamples = 2535\nvalue = [28, 609, 1385, 166, 159, 188]\nclass = 2", fillcolor="#aff5cc"] ;
41 -> 42 ;
43 [label="EMPLE <= 19.5\ngini = 0.611\nsamples = 2452\nvalue = [27, 609, 1378, 166, 159, 113]\nclass = 2", fillcolor="#acf4ca"] ;
42 -> 43 ;
44 [label="gini = 0.549\nsamples = 1294\nvalue = [15, 159, 838, 99, 104, 79]\nclass = 2", fillcolor="#89efb4"] ;
43 -> 44 ;
45 [label="gini = 0.625\nsamples = 1158\nvalue = [12, 450, 540, 67, 55, 34]\nclass = 2", fillcolor="#e6fcef"] ;
43 -> 45 ;
46 [label="LAPTOPS <= 1.5\ngini = 0.176\nsamples = 83\nvalue = [1, 0, 7, 0, 0, 75]\nclass = 5", fillcolor="#e84ea7"] ;
42 -> 46 ;
47 [label="gini = 0.611\nsamples = 6\nvalue = [1, 0, 3, 0, 0, 2]\nclass = 2", fillcolor="#cef8e0"] ;
46 -> 47 ;
48 [label="gini = 0.098\nsamples = 77\nvalue = [0, 0, 4, 0, 0, 73]\nclass = 5", fillcolor="#e644a2"] ;
46 -> 48 ;
49 [label="REVEN <= 43.5\ngini = 0.622\nsamples = 515\nvalue = [5, 18, 110, 33, 61, 288]\nclass = 5", fillcolor="#f4a8d4"] ;
41 -> 49 ;
50 [label="SICGRP_EDUC <= 0.5\ngini = 0.687\nsamples = 397\nvalue = [5, 18, 100, 29, 59, 186]\nclass = 5", fillcolor="#f7c6e3"] ;
49 -> 50 ;
51 [label="gini = 0.738\nsamples = 324\nvalue = [5, 18, 97, 29, 59, 116]\nclass = 5", fillcolor="#fdeef7"] ;
50 -> 51 ;
52 [label="gini = 0.079\nsamples = 73\nvalue = [0, 0, 3, 0, 0, 70]\nclass = 5", fillcolor="#e641a1"] ;
50 -> 52 ;
53 [label="EMPLE <= 998.5\ngini = 0.244\nsamples = 118\nvalue = [0, 0, 10, 4, 2, 102]\nclass = 5", fillcolor="#e956ac"] ;
49 -> 53 ;
54 [label="gini = 0.221\nsamples = 116\nvalue = [0, 0, 8, 4, 2, 102]\nclass = 5", fillcolor="#e853aa"] ;
53 -> 54 ;
55 [label="gini = 0.0\nsamples = 2\nvalue = [0, 0, 2, 0, 0, 0]\nclass = 2", fillcolor="#39e581"] ;
53 -> 55 ;
56 [label="IT_BUDGET <= 33876.5\ngini = 0.163\nsamples = 10520\nvalue = [130, 260, 9616, 164, 128, 222]\nclass = 2", fillcolor="#4ae78c"] ;
0 -> 56 [labeldistance=2.5, labelangle=-45, headlabel="False"] ;
57 [label="EMPLE <= 0.5\ngini = 0.042\nsamples = 4292\nvalue = [33, 20, 4200, 20, 9, 10]\nclass = 2", fillcolor="#3de684"] ;
56 -> 57 ;
58 [label="SICGRP_MANUF <= 0.5\ngini = 0.241\nsamples = 228\nvalue = [32, 0, 196, 0, 0, 0]\nclass = 2", fillcolor="#59e996"] ;
57 -> 58 ;
59 [label="YEAR_EST_1954.0 <= 0.5\ngini = 0.206\nsamples = 215\nvalue = [25, 0, 190, 0, 0, 0]\nclass = 2", fillcolor="#53e892"] ;
58 -> 59 ;
60 [label="YEAR_EST_1984.0 <= 0.5\ngini = 0.199\nsamples = 214\nvalue = [24, 0, 190, 0, 0, 0]\nclass = 2", fillcolor="#52e891"] ;
59 -> 60 ;
61 [label="gini = 0.193\nsamples = 213\nvalue = [23, 0, 190, 0, 0, 0]\nclass = 2", fillcolor="#51e890"] ;
60 -> 61 ;
62 [label="gini = 0.0\nsamples = 1\nvalue = [1, 0, 0, 0, 0, 0]\nclass = 0", fillcolor="#e58139"] ;
60 -> 62 ;
63 [label="gini = 0.0\nsamples = 1\nvalue = [1, 0, 0, 0, 0, 0]\nclass = 0", fillcolor="#e58139"] ;
59 -> 63 ;
64 [label="DESKTOPS <= 8.5\ngini = 0.497\nsamples = 13\nvalue = [7, 0, 6, 0, 0, 0]\nclass = 0", fillcolor="#fbede3"] ;
58 -> 64 ;
65 [label="ENT_LAPTOP_500 to 999 <= 0.5\ngini = 0.48\nsamples = 10\nvalue = [4, 0, 6, 0, 0, 0]\nclass = 2", fillcolor="#bdf6d5"] ;
64 -> 65 ;
66 [label="gini = 0.5\nsamples = 8\nvalue = [4, 0, 4, 0, 0, 0]\nclass = 0", fillcolor="#ffffff"] ;
65 -> 66 ;
67 [label="gini = 0.0\nsamples = 2\nvalue = [0, 0, 2, 0, 0, 0]\nclass = 2", fillcolor="#39e581"] ;
65 -> 67 ;
68 [label="gini = 0.0\nsamples = 3\nvalue = [3, 0, 0, 0, 0, 0]\nclass = 0", fillcolor="#e58139"] ;
64 -> 68 ;
69 [label="DESKTOPS <= 1093.0\ngini = 0.029\nsamples = 4064\nvalue = [1, 20, 4004, 20, 9, 10]\nclass = 2", fillcolor="#3ce583"] ;
57 -> 69 ;
70 [label="YEAR_EST_1958.0 <= 0.5\ngini = 0.029\nsamples = 4063\nvalue = [1, 20, 4004, 20, 9, 9]\nclass = 2", fillcolor="#3ce583"] ;
69 -> 70 ;
71 [label="YEAR_EST_1982.0 <= 0.5\ngini = 0.028\nsamples = 4061\nvalue = [1, 19, 4003, 20, 9, 9]\nclass = 2", fillcolor="#3ce583"] ;
70 -> 71 ;
72 [label="gini = 0.027\nsamples = 4029\nvalue = [1, 15, 3975, 20, 9, 9]\nclass = 2", fillcolor="#3ce583"] ;
71 -> 72 ;
73 [label="gini = 0.219\nsamples = 32\nvalue = [0, 4, 28, 0, 0, 0]\nclass = 2", fillcolor="#55e993"] ;
71 -> 73 ;
74 [label="PC_BUDGET <= 692.0\ngini = 0.5\nsamples = 2\nvalue = [0, 1, 1, 0, 0, 0]\nclass = 1", fillcolor="#ffffff"] ;
70 -> 74 ;
75 [label="gini = 0.0\nsamples = 1\nvalue = [0, 1, 0, 0, 0, 0]\nclass = 1", fillcolor="#9de539"] ;
74 -> 75 ;
76 [label="gini = 0.0\nsamples = 1\nvalue = [0, 0, 1, 0, 0, 0]\nclass = 2", fillcolor="#39e581"] ;
74 -> 76 ;
77 [label="gini = 0.0\nsamples = 1\nvalue = [0, 0, 0, 0, 0, 1]\nclass = 5", fillcolor="#e5399d"] ;
69 -> 77 ;
78 [label="EMPLE <= 0.5\ngini = 0.24\nsamples = 6228\nvalue = [97, 240, 5416, 144, 119, 212]\nclass = 2", fillcolor="#54e992"] ;
56 -> 78 ;
79 [label="PC_BUDGET <= 1080.0\ngini = 0.426\nsamples = 284\nvalue = [84, 0, 198, 0, 2, 0]\nclass = 2", fillcolor="#8ef0b7"] ;
78 -> 79 ;
80 [label="DESKTOPS <= 34.5\ngini = 0.43\nsamples = 16\nvalue = [11, 0, 5, 0, 0, 0]\nclass = 0", fillcolor="#f1ba93"] ;
79 -> 80 ;
81 [label="YEAR_EST_1966.0 <= 0.5\ngini = 0.337\nsamples = 14\nvalue = [11, 0, 3, 0, 0, 0]\nclass = 0", fillcolor="#eca36f"] ;
80 -> 81 ;
82 [label="gini = 0.26\nsamples = 13\nvalue = [11, 0, 2, 0, 0, 0]\nclass = 0", fillcolor="#ea985d"] ;
81 -> 82 ;
83 [label="gini = 0.0\nsamples = 1\nvalue = [0, 0, 1, 0, 0, 0]\nclass = 2", fillcolor="#39e581"] ;
81 -> 83 ;
84 [label="gini = 0.0\nsamples = 2\nvalue = [0, 0, 2, 0, 0, 0]\nclass = 2", fillcolor="#39e581"] ;
80 -> 84 ;
85 [label="MOBILE_WORKERS <= 0.5\ngini = 0.407\nsamples = 268\nvalue = [73, 0, 193, 0, 2, 0]\nclass = 2", fillcolor="#85efb1"] ;
79 -> 85 ;
86 [label="ENT_LAPTOP_2500 to 4999 <= 0.5\ngini = 0.401\nsamples = 264\nvalue = [70, 0, 192, 0, 2, 0]\nclass = 2", fillcolor="#82efb0"] ;
85 -> 86 ;
87 [label="gini = 0.394\nsamples = 260\nvalue = [67, 0, 191, 0, 2, 0]\nclass = 2", fillcolor="#80eeae"] ;
86 -> 87 ;
88 [label="gini = 0.375\nsamples = 4\nvalue = [3, 0, 1, 0, 0, 0]\nclass = 0", fillcolor="#eeab7b"] ;
86 -> 88 ;
89 [label="REVEN <= 1.5\ngini = 0.375\nsamples = 4\nvalue = [3, 0, 1, 0, 0, 0]\nclass = 0", fillcolor="#eeab7b"] ;
85 -> 89 ;
90 [label="gini = 0.0\nsamples = 1\nvalue = [0, 0, 1, 0, 0, 0]\nclass = 2", fillcolor="#39e581"] ;
89 -> 90 ;
91 [label="gini = 0.0\nsamples = 3\nvalue = [3, 0, 0, 0, 0, 0]\nclass = 0", fillcolor="#e58139"] ;
89 -> 91 ;
92 [label="ENT_LAPTOP_<250 <= 0.5\ngini = 0.225\nsamples = 5944\nvalue = [13, 240, 5218, 144, 117, 212]\nclass = 2", fillcolor="#52e891"] ;
78 -> 92 ;
93 [label="EMPLE <= 10.5\ngini = 0.364\nsamples = 678\nvalue = [2, 2, 523, 2, 12, 137]\nclass = 2", fillcolor="#72eca5"] ;
92 -> 93 ;
94 [label="SICGRP_F-I-RE <= 0.5\ngini = 0.53\nsamples = 241\nvalue = [0, 1, 125, 1, 6, 108]\nclass = 2", fillcolor="#e6fcef"] ;
93 -> 94 ;
95 [label="gini = 0.459\nsamples = 131\nvalue = [0, 1, 90, 1, 5, 34]\nclass = 2", fillcolor="#8df0b6"] ;
94 -> 95 ;
96 [label="gini = 0.446\nsamples = 110\nvalue = [0, 0, 35, 0, 1, 74]\nclass = 5", fillcolor="#f198cc"] ;
94 -> 96 ;
97 [label="MOBILE_WORKERS <= 2.5\ngini = 0.166\nsamples = 437\nvalue = [2, 1, 398, 1, 6, 29]\nclass = 2", fillcolor="#4ce78d"] ;
93 -> 97 ;
98 [label="gini = 0.155\nsamples = 434\nvalue = [2, 0, 398, 1, 5, 28]\nclass = 2", fillcolor="#4be78c"] ;
97 -> 98 ;
99 [label="gini = 0.667\nsamples = 3\nvalue = [0, 1, 0, 0, 1, 1]\nclass = 1", fillcolor="#ffffff"] ;
97 -> 99 ;
100 [label="EMPLE <= 4.5\ngini = 0.202\nsamples = 5266\nvalue = [11, 238, 4695, 142, 105, 75]\nclass = 2", fillcolor="#4fe88f"] ;
92 -> 100 ;
101 [label="DESKTOPS <= 18.0\ngini = 0.029\nsamples = 1036\nvalue = [3, 4, 1021, 2, 3, 3]\nclass = 2", fillcolor="#3ce583"] ;
100 -> 101 ;
102 [label="gini = 0.025\nsamples = 1034\nvalue = [2, 4, 1021, 2, 3, 2]\nclass = 2", fillcolor="#3be583"] ;
101 -> 102 ;
103 [label="gini = 0.5\nsamples = 2\nvalue = [1, 0, 0, 0, 0, 1]\nclass = 0", fillcolor="#ffffff"] ;
101 -> 103 ;
104 [label="EMPLE <= 12.5\ngini = 0.241\nsamples = 4230\nvalue = [8, 234, 3674, 140, 102, 72]\nclass = 2", fillcolor="#55e993"] ;
100 -> 104 ;
105 [label="gini = 0.344\nsamples = 2335\nvalue = [1, 187, 1874, 127, 87, 59]\nclass = 2", fillcolor="#63eb9c"] ;
104 -> 105 ;
106 [label="gini = 0.097\nsamples = 1895\nvalue = [7, 47, 1800, 13, 15, 13]\nclass = 2", fillcolor="#43e687"] ;
104 -> 106 ;
}