digraph Tree {
node [shape=box, style="filled", color="black"] ;
0 [label="INDUS <= 2.91\ngini = 0.5\nsamples = 506\nvalue = [249, 257]\nclass = 1", fillcolor="#f9fcfe"] ;
1 [label="B <= 391.415\ngini = 0.431\nsamples = 51\nvalue = [16, 35]\nclass = 1", fillcolor="#94caf1"] ;
0 -> 1 [labeldistance=2.5, labelangle=45, headlabel="True"] ;
2 [label="LSTAT <= 4.475\ngini = 0.111\nsamples = 17\nvalue = [1, 16]\nclass = 1", fillcolor="#45a3e7"] ;
1 -> 2 ;
3 [label="B <= 387.425\ngini = 0.5\nsamples = 2\nvalue = [1, 1]\nclass = 0", fillcolor="#ffffff"] ;
2 -> 3 ;
4 [label="gini = 0.0\nsamples = 1\nvalue = [1, 0]\nclass = 0", fillcolor="#e58139"] ;
3 -> 4 ;
5 [label="gini = 0.0\nsamples = 1\nvalue = [0, 1]\nclass = 1", fillcolor="#399de5"] ;
3 -> 5 ;
6 [label="gini = 0.0\nsamples = 15\nvalue = [0, 15]\nclass = 1", fillcolor="#399de5"] ;
2 -> 6 ;
7 [label="RM <= 7.793\ngini = 0.493\nsamples = 34\nvalue = [15, 19]\nclass = 1", fillcolor="#d5eafa"] ;
1 -> 7 ;
8 [label="RM <= 7.245\ngini = 0.497\nsamples = 28\nvalue = [15, 13]\nclass = 0", fillcolor="#fceee5"] ;
7 -> 8 ;
9 [label="LSTAT <= 4.69\ngini = 0.472\nsamples = 21\nvalue = [8, 13]\nclass = 1", fillcolor="#b3d9f5"] ;
8 -> 9 ;
10 [label="gini = 0.0\nsamples = 3\nvalue = [3, 0]\nclass = 0", fillcolor="#e58139"] ;
9 -> 10 ;
11 [label="B <= 393.945\ngini = 0.401\nsamples = 18\nvalue = [5, 13]\nclass = 1", fillcolor="#85c3ef"] ;
9 -> 11 ;
12 [label="RAD <= 3.5\ngini = 0.444\nsamples = 6\nvalue = [4, 2]\nclass = 0", fillcolor="#f2c09c"] ;
11 -> 12 ;
13 [label="gini = 0.0\nsamples = 3\nvalue = [3, 0]\nclass = 0", fillcolor="#e58139"] ;
12 -> 13 ;
14 [label="B <= 393.52\ngini = 0.444\nsamples = 3\nvalue = [1, 2]\nclass = 1", fillcolor="#9ccef2"] ;
12 -> 14 ;
15 [label="gini = 0.0\nsamples = 2\nvalue = [0, 2]\nclass = 1", fillcolor="#399de5"] ;
14 -> 15 ;
16 [label="gini = 0.0\nsamples = 1\nvalue = [1, 0]\nclass = 0", fillcolor="#e58139"] ;
14 -> 16 ;
17 [label="AGE <= 93.9\ngini = 0.153\nsamples = 12\nvalue = [1, 11]\nclass = 1", fillcolor="#4ba6e7"] ;
11 -> 17 ;
18 [label="gini = 0.0\nsamples = 11\nvalue = [0, 11]\nclass = 1", fillcolor="#399de5"] ;
17 -> 18 ;
19 [label="gini = 0.0\nsamples = 1\nvalue = [1, 0]\nclass = 0", fillcolor="#e58139"] ;
17 -> 19 ;
20 [label="gini = 0.0\nsamples = 7\nvalue = [7, 0]\nclass = 0", fillcolor="#e58139"] ;
8 -> 20 ;
21 [label="gini = 0.0\nsamples = 6\nvalue = [0, 6]\nclass = 1", fillcolor="#399de5"] ;
7 -> 21 ;
22 [label="LSTAT <= 27.04\ngini = 0.5\nsamples = 455\nvalue = [233, 222]\nclass = 0", fillcolor="#fef9f6"] ;
0 -> 22 [labeldistance=2.5, labelangle=-45, headlabel="False"] ;
23 [label="NOX <= 0.663\ngini = 0.499\nsamples = 430\nvalue = [226, 204]\nclass = 0", fillcolor="#fcf3ec"] ;
22 -> 23 ;
24 [label="ZN <= 32.0\ngini = 0.5\nsamples = 343\nvalue = [169, 174]\nclass = 1", fillcolor="#f9fcfe"] ;
23 -> 24 ;
25 [label="DIS <= 4.991\ngini = 0.498\nsamples = 307\nvalue = [144, 163]\nclass = 1", fillcolor="#e8f4fc"] ;
24 -> 25 ;
26 [label="NOX <= 0.627\ngini = 0.5\nsamples = 235\nvalue = [119, 116]\nclass = 0", fillcolor="#fefcfa"] ;
25 -> 26 ;
27 [label="RM <= 5.642\ngini = 0.498\nsamples = 215\nvalue = [114, 101]\nclass = 0", fillcolor="#fcf1e8"] ;
26 -> 27 ;
28 [label="LSTAT <= 20.55\ngini = 0.36\nsamples = 17\nvalue = [13, 4]\nclass = 0", fillcolor="#eda876"] ;
27 -> 28 ;
29 [label="gini = 0.0\nsamples = 10\nvalue = [10, 0]\nclass = 0", fillcolor="#e58139"] ;
28 -> 29 ;
30 [label="CRIM <= 0.406\ngini = 0.49\nsamples = 7\nvalue = [3, 4]\nclass = 1", fillcolor="#cee6f8"] ;
28 -> 30 ;
31 [label="gini = 0.0\nsamples = 3\nvalue = [0, 3]\nclass = 1", fillcolor="#399de5"] ;
30 -> 31 ;
32 [label="LSTAT <= 22.055\ngini = 0.375\nsamples = 4\nvalue = [3, 1]\nclass = 0", fillcolor="#eeab7b"] ;
30 -> 32 ;
33 [label="gini = 0.0\nsamples = 1\nvalue = [0, 1]\nclass = 1", fillcolor="#399de5"] ;
32 -> 33 ;
34 [label="gini = 0.0\nsamples = 3\nvalue = [3, 0]\nclass = 0", fillcolor="#e58139"] ;
32 -> 34 ;
35 [label="B <= 138.655\ngini = 0.5\nsamples = 198\nvalue = [101, 97]\nclass = 0", fillcolor="#fefaf7"] ;
27 -> 35 ;
36 [label="RM <= 5.797\ngini = 0.219\nsamples = 8\nvalue = [1, 7]\nclass = 1", fillcolor="#55abe9"] ;
35 -> 36 ;
37 [label="gini = 0.0\nsamples = 1\nvalue = [1, 0]\nclass = 0", fillcolor="#e58139"] ;
36 -> 37 ;
38 [label="gini = 0.0\nsamples = 7\nvalue = [0, 7]\nclass = 1", fillcolor="#399de5"] ;
36 -> 38 ;
39 [label="LSTAT <= 18.405\ngini = 0.499\nsamples = 190\nvalue = [100, 90]\nclass = 0", fillcolor="#fcf2eb"] ;
35 -> 39 ;
40 [label="LSTAT <= 17.98\ngini = 0.5\nsamples = 176\nvalue = [88, 88]\nclass = 0", fillcolor="#ffffff"] ;
39 -> 40 ;
41 [label="RM <= 8.281\ngini = 0.499\nsamples = 170\nvalue = [88, 82]\nclass = 0", fillcolor="#fdf6f2"] ;
40 -> 41 ;
42 [label="RM <= 6.911\ngini = 0.5\nsamples = 166\nvalue = [84, 82]\nclass = 0", fillcolor="#fefcfa"] ;
41 -> 42 ;
43 [label="RAD <= 3.5\ngini = 0.497\nsamples = 145\nvalue = [78, 67]\nclass = 0", fillcolor="#fbede3"] ;
42 -> 43 ;
44 [label="AGE <= 82.45\ngini = 0.32\nsamples = 20\nvalue = [16, 4]\nclass = 0", fillcolor="#eca06a"] ;
43 -> 44 ;
45 [label="NOX <= 0.456\ngini = 0.124\nsamples = 15\nvalue = [14, 1]\nclass = 0", fillcolor="#e78a47"] ;
44 -> 45 ;
46 [label="DIS <= 4.087\ngini = 0.375\nsamples = 4\nvalue = [3, 1]\nclass = 0", fillcolor="#eeab7b"] ;
45 -> 46 ;
47 [label="gini = 0.0\nsamples = 1\nvalue = [0, 1]\nclass = 1", fillcolor="#399de5"] ;
46 -> 47 ;
48 [label="gini = 0.0\nsamples = 3\nvalue = [3, 0]\nclass = 0", fillcolor="#e58139"] ;
46 -> 48 ;
49 [label="gini = 0.0\nsamples = 11\nvalue = [11, 0]\nclass = 0", fillcolor="#e58139"] ;
45 -> 49 ;
50 [label="DIS <= 2.142\ngini = 0.48\nsamples = 5\nvalue = [2, 3]\nclass = 1", fillcolor="#bddef6"] ;
44 -> 50 ;
51 [label="RM <= 5.92\ngini = 0.444\nsamples = 3\nvalue = [2, 1]\nclass = 0", fillcolor="#f2c09c"] ;
50 -> 51 ;
52 [label="gini = 0.0\nsamples = 1\nvalue = [0, 1]\nclass = 1", fillcolor="#399de5"] ;
51 -> 52 ;
53 [label="gini = 0.0\nsamples = 2\nvalue = [2, 0]\nclass = 0", fillcolor="#e58139"] ;
51 -> 53 ;
54 [label="gini = 0.0\nsamples = 2\nvalue = [0, 2]\nclass = 1", fillcolor="#399de5"] ;
50 -> 54 ;
55 [label="CRIM <= 0.065\ngini = 0.5\nsamples = 125\nvalue = [62, 63]\nclass = 1", fillcolor="#fcfdff"] ;
43 -> 55 ;
56 [label="CRIM <= 0.038\ngini = 0.198\nsamples = 9\nvalue = [1, 8]\nclass = 1", fillcolor="#52a9e8"] ;
55 -> 56 ;
57 [label="RM <= 6.135\ngini = 0.5\nsamples = 2\nvalue = [1, 1]\nclass = 0", fillcolor="#ffffff"] ;
56 -> 57 ;
58 [label="gini = 0.0\nsamples = 1\nvalue = [1, 0]\nclass = 0", fillcolor="#e58139"] ;
57 -> 58 ;
59 [label="gini = 0.0\nsamples = 1\nvalue = [0, 1]\nclass = 1", fillcolor="#399de5"] ;
57 -> 59 ;
60 [label="gini = 0.0\nsamples = 7\nvalue = [0, 7]\nclass = 1", fillcolor="#399de5"] ;
56 -> 60 ;
61 [label="AGE <= 52.1\ngini = 0.499\nsamples = 116\nvalue = [61, 55]\nclass = 0", fillcolor="#fcf3ec"] ;
55 -> 61 ;
62 [label="B <= 394.275\ngini = 0.408\nsamples = 21\nvalue = [6, 15]\nclass = 1", fillcolor="#88c4ef"] ;
61 -> 62 ;
63 [label="CRIM <= 0.068\ngini = 0.142\nsamples = 13\nvalue = [1, 12]\nclass = 1", fillcolor="#49a5e7"] ;
62 -> 63 ;
64 [label="gini = 0.0\nsamples = 1\nvalue = [1, 0]\nclass = 0", fillcolor="#e58139"] ;
63 -> 64 ;
65 [label="gini = 0.0\nsamples = 12\nvalue = [0, 12]\nclass = 1", fillcolor="#399de5"] ;
63 -> 65 ;
66 [label="RM <= 5.882\ngini = 0.469\nsamples = 8\nvalue = [5, 3]\nclass = 0", fillcolor="#f5cdb0"] ;
62 -> 66 ;
67 [label="gini = 0.0\nsamples = 2\nvalue = [0, 2]\nclass = 1", fillcolor="#399de5"] ;
66 -> 67 ;
68 [label="AGE <= 46.25\ngini = 0.278\nsamples = 6\nvalue = [5, 1]\nclass = 0", fillcolor="#ea9a61"] ;
66 -> 68 ;
69 [label="gini = 0.0\nsamples = 5\nvalue = [5, 0]\nclass = 0", fillcolor="#e58139"] ;
68 -> 69 ;
70 [label="gini = 0.0\nsamples = 1\nvalue = [0, 1]\nclass = 1", fillcolor="#399de5"] ;
68 -> 70 ;
71 [label="B <= 394.205\ngini = 0.488\nsamples = 95\nvalue = [55, 40]\nclass = 0", fillcolor="#f8ddc9"] ;
61 -> 71 ;
72 [label="B <= 392.605\ngini = 0.427\nsamples = 55\nvalue = [38, 17]\nclass = 0", fillcolor="#f1b992"] ;
71 -> 72 ;
73 [label="AGE <= 67.3\ngini = 0.482\nsamples = 42\nvalue = [25, 17]\nclass = 0", fillcolor="#f7d7c0"] ;
72 -> 73 ;
74 [label="gini = 0.0\nsamples = 7\nvalue = [7, 0]\nclass = 0", fillcolor="#e58139"] ;
73 -> 74 ;
75 [label="CRIM <= 0.564\ngini = 0.5\nsamples = 35\nvalue = [18, 17]\nclass = 0", fillcolor="#fef8f4"] ;
73 -> 75 ;
76 [label="B <= 391.25\ngini = 0.426\nsamples = 13\nvalue = [4, 9]\nclass = 1", fillcolor="#91c9f1"] ;
75 -> 76 ;
77 [label="DIS <= 2.466\ngini = 0.298\nsamples = 11\nvalue = [2, 9]\nclass = 1", fillcolor="#65b3eb"] ;
76 -> 77 ;
78 [label="INDUS <= 9.285\ngini = 0.5\nsamples = 4\nvalue = [2, 2]\nclass = 0", fillcolor="#ffffff"] ;
77 -> 78 ;
79 [label="gini = 0.0\nsamples = 1\nvalue = [1, 0]\nclass = 0", fillcolor="#e58139"] ;
78 -> 79 ;
80 [label="B <= 361.58\ngini = 0.444\nsamples = 3\nvalue = [1, 2]\nclass = 1", fillcolor="#9ccef2"] ;
78 -> 80 ;
81 [label="gini = 0.0\nsamples = 1\nvalue = [1, 0]\nclass = 0", fillcolor="#e58139"] ;
80 -> 81 ;
82 [label="gini = 0.0\nsamples = 2\nvalue = [0, 2]\nclass = 1", fillcolor="#399de5"] ;
80 -> 82 ;
83 [label="gini = 0.0\nsamples = 7\nvalue = [0, 7]\nclass = 1", fillcolor="#399de5"] ;
77 -> 83 ;
84 [label="gini = 0.0\nsamples = 2\nvalue = [2, 0]\nclass = 0", fillcolor="#e58139"] ;
76 -> 84 ;
85 [label="AGE <= 87.45\ngini = 0.463\nsamples = 22\nvalue = [14, 8]\nclass = 0", fillcolor="#f4c9aa"] ;
75 -> 85 ;
86 [label="gini = 0.0\nsamples = 6\nvalue = [6, 0]\nclass = 0", fillcolor="#e58139"] ;
85 -> 86 ;
87 [label="AGE <= 92.8\ngini = 0.5\nsamples = 16\nvalue = [8, 8]\nclass = 0", fillcolor="#ffffff"] ;
85 -> 87 ;
88 [label="CRIM <= 13.191\ngini = 0.278\nsamples = 6\nvalue = [1, 5]\nclass = 1", fillcolor="#61b1ea"] ;
87 -> 88 ;
89 [label="gini = 0.0\nsamples = 5\nvalue = [0, 5]\nclass = 1", fillcolor="#399de5"] ;
88 -> 89 ;
90 [label="gini = 0.0\nsamples = 1\nvalue = [1, 0]\nclass = 0", fillcolor="#e58139"] ;
88 -> 90 ;
91 [label="CRIM <= 1.349\ngini = 0.42\nsamples = 10\nvalue = [7, 3]\nclass = 0", fillcolor="#f0b78e"] ;
87 -> 91 ;
92 [label="gini = 0.0\nsamples = 5\nvalue = [5, 0]\nclass = 0", fillcolor="#e58139"] ;
91 -> 92 ;
93 [label="DIS <= 2.273\ngini = 0.48\nsamples = 5\nvalue = [2, 3]\nclass = 1", fillcolor="#bddef6"] ;
91 -> 93 ;
94 [label="gini = 0.0\nsamples = 2\nvalue = [0, 2]\nclass = 1", fillcolor="#399de5"] ;
93 -> 94 ;
95 [label="B <= 362.43\ngini = 0.444\nsamples = 3\nvalue = [2, 1]\nclass = 0", fillcolor="#f2c09c"] ;
93 -> 95 ;
96 [label="gini = 0.0\nsamples = 2\nvalue = [2, 0]\nclass = 0", fillcolor="#e58139"] ;
95 -> 96 ;
97 [label="gini = 0.0\nsamples = 1\nvalue = [0, 1]\nclass = 1", fillcolor="#399de5"] ;
95 -> 97 ;
98 [label="gini = 0.0\nsamples = 13\nvalue = [13, 0]\nclass = 0", fillcolor="#e58139"] ;
72 -> 98 ;
99 [label="DIS <= 2.873\ngini = 0.489\nsamples = 40\nvalue = [17, 23]\nclass = 1", fillcolor="#cbe5f8"] ;
71 -> 99 ;
100 [label="RM <= 6.025\ngini = 0.363\nsamples = 21\nvalue = [5, 16]\nclass = 1", fillcolor="#77bced"] ;
99 -> 100 ;
101 [label="gini = 0.0\nsamples = 8\nvalue = [0, 8]\nclass = 1", fillcolor="#399de5"] ;
100 -> 101 ;
102 [label="B <= 396.245\ngini = 0.473\nsamples = 13\nvalue = [5, 8]\nclass = 1", fillcolor="#b5daf5"] ;
100 -> 102 ;
103 [label="RM <= 6.721\ngini = 0.219\nsamples = 8\nvalue = [1, 7]\nclass = 1", fillcolor="#55abe9"] ;
102 -> 103 ;
104 [label="gini = 0.0\nsamples = 6\nvalue = [0, 6]\nclass = 1", fillcolor="#399de5"] ;
103 -> 104 ;
105 [label="RM <= 6.754\ngini = 0.5\nsamples = 2\nvalue = [1, 1]\nclass = 0", fillcolor="#ffffff"] ;
103 -> 105 ;
106 [label="gini = 0.0\nsamples = 1\nvalue = [1, 0]\nclass = 0", fillcolor="#e58139"] ;
105 -> 106 ;
107 [label="gini = 0.0\nsamples = 1\nvalue = [0, 1]\nclass = 1", fillcolor="#399de5"] ;
105 -> 107 ;
108 [label="CRIM <= 0.223\ngini = 0.32\nsamples = 5\nvalue = [4, 1]\nclass = 0", fillcolor="#eca06a"] ;
102 -> 108 ;
109 [label="gini = 0.0\nsamples = 1\nvalue = [0, 1]\nclass = 1", fillcolor="#399de5"] ;
108 -> 109 ;
110 [label="gini = 0.0\nsamples = 4\nvalue = [4, 0]\nclass = 0", fillcolor="#e58139"] ;
108 -> 110 ;
111 [label="DIS <= 3.371\ngini = 0.465\nsamples = 19\nvalue = [12, 7]\nclass = 0", fillcolor="#f4caac"] ;
99 -> 111 ;
112 [label="gini = 0.0\nsamples = 7\nvalue = [7, 0]\nclass = 0", fillcolor="#e58139"] ;
111 -> 112 ;
113 [label="AGE <= 53.4\ngini = 0.486\nsamples = 12\nvalue = [5, 7]\nclass = 1", fillcolor="#c6e3f8"] ;
111 -> 113 ;
114 [label="gini = 0.0\nsamples = 2\nvalue = [2, 0]\nclass = 0", fillcolor="#e58139"] ;
113 -> 114 ;
115 [label="AGE <= 74.7\ngini = 0.42\nsamples = 10\nvalue = [3, 7]\nclass = 1", fillcolor="#8ec7f0"] ;
113 -> 115 ;
116 [label="DIS <= 4.624\ngini = 0.245\nsamples = 7\nvalue = [1, 6]\nclass = 1", fillcolor="#5aade9"] ;
115 -> 116 ;
117 [label="gini = 0.0\nsamples = 6\nvalue = [0, 6]\nclass = 1", fillcolor="#399de5"] ;
116 -> 117 ;
118 [label="gini = 0.0\nsamples = 1\nvalue = [1, 0]\nclass = 0", fillcolor="#e58139"] ;
116 -> 118 ;
119 [label="B <= 395.01\ngini = 0.444\nsamples = 3\nvalue = [2, 1]\nclass = 0", fillcolor="#f2c09c"] ;
115 -> 119 ;
120 [label="gini = 0.0\nsamples = 1\nvalue = [0, 1]\nclass = 1", fillcolor="#399de5"] ;
119 -> 120 ;
121 [label="gini = 0.0\nsamples = 2\nvalue = [2, 0]\nclass = 0", fillcolor="#e58139"] ;
119 -> 121 ;
122 [label="LSTAT <= 4.085\ngini = 0.408\nsamples = 21\nvalue = [6, 15]\nclass = 1", fillcolor="#88c4ef"] ;
42 -> 122 ;
123 [label="CRIM <= 0.315\ngini = 0.494\nsamples = 9\nvalue = [5, 4]\nclass = 0", fillcolor="#fae6d7"] ;
122 -> 123 ;
124 [label="gini = 0.0\nsamples = 3\nvalue = [3, 0]\nclass = 0", fillcolor="#e58139"] ;
123 -> 124 ;
125 [label="CRIM <= 1.649\ngini = 0.444\nsamples = 6\nvalue = [2, 4]\nclass = 1", fillcolor="#9ccef2"] ;
123 -> 125 ;
126 [label="gini = 0.0\nsamples = 4\nvalue = [0, 4]\nclass = 1", fillcolor="#399de5"] ;
125 -> 126 ;
127 [label="gini = 0.0\nsamples = 2\nvalue = [2, 0]\nclass = 0", fillcolor="#e58139"] ;
125 -> 127 ;
128 [label="LSTAT <= 10.685\ngini = 0.153\nsamples = 12\nvalue = [1, 11]\nclass = 1", fillcolor="#4ba6e7"] ;
122 -> 128 ;
129 [label="gini = 0.0\nsamples = 11\nvalue = [0, 11]\nclass = 1", fillcolor="#399de5"] ;
128 -> 129 ;
130 [label="gini = 0.0\nsamples = 1\nvalue = [1, 0]\nclass = 0", fillcolor="#e58139"] ;
128 -> 130 ;
131 [label="gini = 0.0\nsamples = 4\nvalue = [4, 0]\nclass = 0", fillcolor="#e58139"] ;
41 -> 131 ;
132 [label="gini = 0.0\nsamples = 6\nvalue = [0, 6]\nclass = 1", fillcolor="#399de5"] ;
40 -> 132 ;
133 [label="AGE <= 99.1\ngini = 0.245\nsamples = 14\nvalue = [12, 2]\nclass = 0", fillcolor="#e9965a"] ;
39 -> 133 ;
134 [label="DIS <= 1.64\ngini = 0.153\nsamples = 12\nvalue = [11, 1]\nclass = 0", fillcolor="#e78c4b"] ;
133 -> 134 ;
135 [label="gini = 0.0\nsamples = 1\nvalue = [0, 1]\nclass = 1", fillcolor="#399de5"] ;
134 -> 135 ;
136 [label="gini = 0.0\nsamples = 11\nvalue = [11, 0]\nclass = 0", fillcolor="#e58139"] ;
134 -> 136 ;
137 [label="CRIM <= 7.713\ngini = 0.5\nsamples = 2\nvalue = [1, 1]\nclass = 0", fillcolor="#ffffff"] ;
133 -> 137 ;
138 [label="gini = 0.0\nsamples = 1\nvalue = [0, 1]\nclass = 1", fillcolor="#399de5"] ;
137 -> 138 ;
139 [label="gini = 0.0\nsamples = 1\nvalue = [1, 0]\nclass = 0", fillcolor="#e58139"] ;
137 -> 139 ;
140 [label="B <= 391.99\ngini = 0.375\nsamples = 20\nvalue = [5, 15]\nclass = 1", fillcolor="#7bbeee"] ;
26 -> 140 ;
141 [label="LSTAT <= 20.245\ngini = 0.124\nsamples = 15\nvalue = [1, 14]\nclass = 1", fillcolor="#47a4e7"] ;
140 -> 141 ;
142 [label="gini = 0.0\nsamples = 14\nvalue = [0, 14]\nclass = 1", fillcolor="#399de5"] ;
141 -> 142 ;
143 [label="gini = 0.0\nsamples = 1\nvalue = [1, 0]\nclass = 0", fillcolor="#e58139"] ;
141 -> 143 ;
144 [label="RM <= 7.265\ngini = 0.32\nsamples = 5\nvalue = [4, 1]\nclass = 0", fillcolor="#eca06a"] ;
140 -> 144 ;
145 [label="gini = 0.0\nsamples = 4\nvalue = [4, 0]\nclass = 0", fillcolor="#e58139"] ;
144 -> 145 ;
146 [label="gini = 0.0\nsamples = 1\nvalue = [0, 1]\nclass = 1", fillcolor="#399de5"] ;
144 -> 146 ;
147 [label="AGE <= 41.1\ngini = 0.453\nsamples = 72\nvalue = [25, 47]\nclass = 1", fillcolor="#a2d1f3"] ;
25 -> 147 ;
148 [label="CRIM <= 0.159\ngini = 0.5\nsamples = 38\nvalue = [19, 19]\nclass = 0", fillcolor="#ffffff"] ;
147 -> 148 ;
149 [label="RM <= 6.363\ngini = 0.459\nsamples = 28\nvalue = [18, 10]\nclass = 0", fillcolor="#f3c7a7"] ;
148 -> 149 ;
150 [label="CRIM <= 0.093\ngini = 0.5\nsamples = 18\nvalue = [9, 9]\nclass = 0", fillcolor="#ffffff"] ;
149 -> 150 ;
151 [label="DIS <= 5.688\ngini = 0.397\nsamples = 11\nvalue = [3, 8]\nclass = 1", fillcolor="#83c2ef"] ;
150 -> 151 ;
152 [label="gini = 0.0\nsamples = 5\nvalue = [0, 5]\nclass = 1", fillcolor="#399de5"] ;
151 -> 152 ;
153 [label="CRIM <= 0.043\ngini = 0.5\nsamples = 6\nvalue = [3, 3]\nclass = 0", fillcolor="#ffffff"] ;
151 -> 153 ;
154 [label="gini = 0.0\nsamples = 2\nvalue = [0, 2]\nclass = 1", fillcolor="#399de5"] ;
153 -> 154 ;
155 [label="ZN <= 16.75\ngini = 0.375\nsamples = 4\nvalue = [3, 1]\nclass = 0", fillcolor="#eeab7b"] ;
153 -> 155 ;
156 [label="gini = 0.0\nsamples = 3\nvalue = [3, 0]\nclass = 0", fillcolor="#e58139"] ;
155 -> 156 ;
157 [label="gini = 0.0\nsamples = 1\nvalue = [0, 1]\nclass = 1", fillcolor="#399de5"] ;
155 -> 157 ;
158 [label="TAX <= 328.0\ngini = 0.245\nsamples = 7\nvalue = [6, 1]\nclass = 0", fillcolor="#e9965a"] ;
150 -> 158 ;
159 [label="gini = 0.0\nsamples = 5\nvalue = [5, 0]\nclass = 0", fillcolor="#e58139"] ;
158 -> 159 ;
160 [label="LSTAT <= 10.94\ngini = 0.5\nsamples = 2\nvalue = [1, 1]\nclass = 0", fillcolor="#ffffff"] ;
158 -> 160 ;
161 [label="gini = 0.0\nsamples = 1\nvalue = [0, 1]\nclass = 1", fillcolor="#399de5"] ;
160 -> 161 ;
162 [label="gini = 0.0\nsamples = 1\nvalue = [1, 0]\nclass = 0", fillcolor="#e58139"] ;
160 -> 162 ;
163 [label="CRIM <= 0.135\ngini = 0.18\nsamples = 10\nvalue = [9, 1]\nclass = 0", fillcolor="#e88f4f"] ;
149 -> 163 ;
164 [label="gini = 0.0\nsamples = 9\nvalue = [9, 0]\nclass = 0", fillcolor="#e58139"] ;
163 -> 164 ;
165 [label="gini = 0.0\nsamples = 1\nvalue = [0, 1]\nclass = 1", fillcolor="#399de5"] ;
163 -> 165 ;
166 [label="RM <= 6.578\ngini = 0.18\nsamples = 10\nvalue = [1, 9]\nclass = 1", fillcolor="#4fa8e8"] ;
148 -> 166 ;
167 [label="gini = 0.0\nsamples = 8\nvalue = [0, 8]\nclass = 1", fillcolor="#399de5"] ;
166 -> 167 ;
168 [label="DIS <= 8.367\ngini = 0.5\nsamples = 2\nvalue = [1, 1]\nclass = 0", fillcolor="#ffffff"] ;
166 -> 168 ;
169 [label="gini = 0.0\nsamples = 1\nvalue = [1, 0]\nclass = 0", fillcolor="#e58139"] ;
168 -> 169 ;
170 [label="gini = 0.0\nsamples = 1\nvalue = [0, 1]\nclass = 1", fillcolor="#399de5"] ;
168 -> 170 ;
171 [label="DIS <= 6.328\ngini = 0.291\nsamples = 34\nvalue = [6, 28]\nclass = 1", fillcolor="#63b2eb"] ;
147 -> 171 ;
172 [label="gini = 0.0\nsamples = 16\nvalue = [0, 16]\nclass = 1", fillcolor="#399de5"] ;
171 -> 172 ;
173 [label="RM <= 6.17\ngini = 0.444\nsamples = 18\nvalue = [6, 12]\nclass = 1", fillcolor="#9ccef2"] ;
171 -> 173 ;
174 [label="RM <= 5.985\ngini = 0.496\nsamples = 11\nvalue = [6, 5]\nclass = 0", fillcolor="#fbeade"] ;
173 -> 174 ;
175 [label="RM <= 5.819\ngini = 0.408\nsamples = 7\nvalue = [2, 5]\nclass = 1", fillcolor="#88c4ef"] ;
174 -> 175 ;
176 [label="B <= 380.81\ngini = 0.444\nsamples = 3\nvalue = [2, 1]\nclass = 0", fillcolor="#f2c09c"] ;
175 -> 176 ;
177 [label="gini = 0.0\nsamples = 1\nvalue = [0, 1]\nclass = 1", fillcolor="#399de5"] ;
176 -> 177 ;
178 [label="gini = 0.0\nsamples = 2\nvalue = [2, 0]\nclass = 0", fillcolor="#e58139"] ;
176 -> 178 ;
179 [label="gini = 0.0\nsamples = 4\nvalue = [0, 4]\nclass = 1", fillcolor="#399de5"] ;
175 -> 179 ;
180 [label="gini = 0.0\nsamples = 4\nvalue = [4, 0]\nclass = 0", fillcolor="#e58139"] ;
174 -> 180 ;
181 [label="gini = 0.0\nsamples = 7\nvalue = [0, 7]\nclass = 1", fillcolor="#399de5"] ;
173 -> 181 ;
182 [label="RM <= 6.791\ngini = 0.424\nsamples = 36\nvalue = [25, 11]\nclass = 0", fillcolor="#f0b890"] ;
24 -> 182 ;
183 [label="LSTAT <= 8.96\ngini = 0.496\nsamples = 22\nvalue = [12, 10]\nclass = 0", fillcolor="#fbeade"] ;
182 -> 183 ;
184 [label="DIS <= 5.612\ngini = 0.469\nsamples = 16\nvalue = [6, 10]\nclass = 1", fillcolor="#b0d8f5"] ;
183 -> 184 ;
185 [label="RM <= 6.488\ngini = 0.245\nsamples = 7\nvalue = [1, 6]\nclass = 1", fillcolor="#5aade9"] ;
184 -> 185 ;
186 [label="gini = 0.0\nsamples = 1\nvalue = [1, 0]\nclass = 0", fillcolor="#e58139"] ;
185 -> 186 ;
187 [label="gini = 0.0\nsamples = 6\nvalue = [0, 6]\nclass = 1", fillcolor="#399de5"] ;
185 -> 187 ;
188 [label="DIS <= 6.626\ngini = 0.494\nsamples = 9\nvalue = [5, 4]\nclass = 0", fillcolor="#fae6d7"] ;
184 -> 188 ;
189 [label="gini = 0.0\nsamples = 4\nvalue = [4, 0]\nclass = 0", fillcolor="#e58139"] ;
188 -> 189 ;
190 [label="RAD <= 5.0\ngini = 0.32\nsamples = 5\nvalue = [1, 4]\nclass = 1", fillcolor="#6ab6ec"] ;
188 -> 190 ;
191 [label="gini = 0.0\nsamples = 3\nvalue = [0, 3]\nclass = 1", fillcolor="#399de5"] ;
190 -> 191 ;
192 [label="CRIM <= 0.042\ngini = 0.5\nsamples = 2\nvalue = [1, 1]\nclass = 0", fillcolor="#ffffff"] ;
190 -> 192 ;
193 [label="gini = 0.0\nsamples = 1\nvalue = [1, 0]\nclass = 0", fillcolor="#e58139"] ;
192 -> 193 ;
194 [label="gini = 0.0\nsamples = 1\nvalue = [0, 1]\nclass = 1", fillcolor="#399de5"] ;
192 -> 194 ;
195 [label="gini = 0.0\nsamples = 6\nvalue = [6, 0]\nclass = 0", fillcolor="#e58139"] ;
183 -> 195 ;
196 [label="DIS <= 4.677\ngini = 0.133\nsamples = 14\nvalue = [13, 1]\nclass = 0", fillcolor="#e78b48"] ;
182 -> 196 ;
197 [label="CRIM <= 0.09\ngini = 0.5\nsamples = 2\nvalue = [1, 1]\nclass = 0", fillcolor="#ffffff"] ;
196 -> 197 ;
198 [label="gini = 0.0\nsamples = 1\nvalue = [0, 1]\nclass = 1", fillcolor="#399de5"] ;
197 -> 198 ;
199 [label="gini = 0.0\nsamples = 1\nvalue = [1, 0]\nclass = 0", fillcolor="#e58139"] ;
197 -> 199 ;
200 [label="gini = 0.0\nsamples = 12\nvalue = [12, 0]\nclass = 0", fillcolor="#e58139"] ;
196 -> 200 ;
201 [label="DIS <= 2.757\ngini = 0.452\nsamples = 87\nvalue = [57, 30]\nclass = 0", fillcolor="#f3c3a1"] ;
23 -> 201 ;
202 [label="DIS <= 2.191\ngini = 0.436\nsamples = 84\nvalue = [57, 27]\nclass = 0", fillcolor="#f1bd97"] ;
201 -> 202 ;
203 [label="LSTAT <= 14.58\ngini = 0.482\nsamples = 64\nvalue = [38, 26]\nclass = 0", fillcolor="#f7d7c0"] ;
202 -> 203 ;
204 [label="LSTAT <= 6.205\ngini = 0.165\nsamples = 11\nvalue = [10, 1]\nclass = 0", fillcolor="#e88e4d"] ;
203 -> 204 ;
205 [label="gini = 0.0\nsamples = 1\nvalue = [0, 1]\nclass = 1", fillcolor="#399de5"] ;
204 -> 205 ;
206 [label="gini = 0.0\nsamples = 10\nvalue = [10, 0]\nclass = 0", fillcolor="#e58139"] ;
204 -> 206 ;
207 [label="B <= 376.92\ngini = 0.498\nsamples = 53\nvalue = [28, 25]\nclass = 0", fillcolor="#fcf2ea"] ;
203 -> 207 ;
208 [label="CRIM <= 13.612\ngini = 0.48\nsamples = 25\nvalue = [10, 15]\nclass = 1", fillcolor="#bddef6"] ;
207 -> 208 ;
209 [label="AGE <= 85.8\ngini = 0.388\nsamples = 19\nvalue = [5, 14]\nclass = 1", fillcolor="#80c0ee"] ;
208 -> 209 ;
210 [label="B <= 68.23\ngini = 0.444\nsamples = 3\nvalue = [2, 1]\nclass = 0", fillcolor="#f2c09c"] ;
209 -> 210 ;
211 [label="gini = 0.0\nsamples = 1\nvalue = [0, 1]\nclass = 1", fillcolor="#399de5"] ;
210 -> 211 ;
212 [label="gini = 0.0\nsamples = 2\nvalue = [2, 0]\nclass = 0", fillcolor="#e58139"] ;
210 -> 212 ;
213 [label="LSTAT <= 15.965\ngini = 0.305\nsamples = 16\nvalue = [3, 13]\nclass = 1", fillcolor="#67b4eb"] ;
209 -> 213 ;
214 [label="LSTAT <= 15.41\ngini = 0.48\nsamples = 5\nvalue = [2, 3]\nclass = 1", fillcolor="#bddef6"] ;
213 -> 214 ;
215 [label="gini = 0.0\nsamples = 3\nvalue = [0, 3]\nclass = 1", fillcolor="#399de5"] ;
214 -> 215 ;
216 [label="gini = 0.0\nsamples = 2\nvalue = [2, 0]\nclass = 0", fillcolor="#e58139"] ;
214 -> 216 ;
217 [label="B <= 51.89\ngini = 0.165\nsamples = 11\nvalue = [1, 10]\nclass = 1", fillcolor="#4da7e8"] ;
213 -> 217 ;
218 [label="CRIM <= 10.753\ngini = 0.5\nsamples = 2\nvalue = [1, 1]\nclass = 0", fillcolor="#ffffff"] ;
217 -> 218 ;
219 [label="gini = 0.0\nsamples = 1\nvalue = [1, 0]\nclass = 0", fillcolor="#e58139"] ;
218 -> 219 ;
220 [label="gini = 0.0\nsamples = 1\nvalue = [0, 1]\nclass = 1", fillcolor="#399de5"] ;
218 -> 220 ;
221 [label="gini = 0.0\nsamples = 9\nvalue = [0, 9]\nclass = 1", fillcolor="#399de5"] ;
217 -> 221 ;
222 [label="CRIM <= 49.737\ngini = 0.278\nsamples = 6\nvalue = [5, 1]\nclass = 0", fillcolor="#ea9a61"] ;
208 -> 222 ;
223 [label="gini = 0.0\nsamples = 5\nvalue = [5, 0]\nclass = 0", fillcolor="#e58139"] ;
222 -> 223 ;
224 [label="gini = 0.0\nsamples = 1\nvalue = [0, 1]\nclass = 1", fillcolor="#399de5"] ;
222 -> 224 ;
225 [label="CRIM <= 12.469\ngini = 0.459\nsamples = 28\nvalue = [18, 10]\nclass = 0", fillcolor="#f3c7a7"] ;
207 -> 225 ;
226 [label="CRIM <= 8.072\ngini = 0.346\nsamples = 18\nvalue = [14, 4]\nclass = 0", fillcolor="#eca572"] ;
225 -> 226 ;
227 [label="B <= 393.765\ngini = 0.5\nsamples = 8\nvalue = [4, 4]\nclass = 0", fillcolor="#ffffff"] ;
226 -> 227 ;
228 [label="gini = 0.0\nsamples = 2\nvalue = [2, 0]\nclass = 0", fillcolor="#e58139"] ;
227 -> 228 ;
229 [label="NOX <= 0.697\ngini = 0.444\nsamples = 6\nvalue = [2, 4]\nclass = 1", fillcolor="#9ccef2"] ;
227 -> 229 ;
230 [label="gini = 0.0\nsamples = 1\nvalue = [1, 0]\nclass = 0", fillcolor="#e58139"] ;
229 -> 230 ;
231 [label="LSTAT <= 26.62\ngini = 0.32\nsamples = 5\nvalue = [1, 4]\nclass = 1", fillcolor="#6ab6ec"] ;
229 -> 231 ;
232 [label="gini = 0.0\nsamples = 4\nvalue = [0, 4]\nclass = 1", fillcolor="#399de5"] ;
231 -> 232 ;
233 [label="gini = 0.0\nsamples = 1\nvalue = [1, 0]\nclass = 0", fillcolor="#e58139"] ;
231 -> 233 ;
234 [label="gini = 0.0\nsamples = 10\nvalue = [10, 0]\nclass = 0", fillcolor="#e58139"] ;
226 -> 234 ;
235 [label="DIS <= 1.581\ngini = 0.48\nsamples = 10\nvalue = [4, 6]\nclass = 1", fillcolor="#bddef6"] ;
225 -> 235 ;
236 [label="AGE <= 99.55\ngini = 0.444\nsamples = 6\nvalue = [4, 2]\nclass = 0", fillcolor="#f2c09c"] ;
235 -> 236 ;
237 [label="LSTAT <= 19.145\ngini = 0.444\nsamples = 3\nvalue = [1, 2]\nclass = 1", fillcolor="#9ccef2"] ;
236 -> 237 ;
238 [label="gini = 0.0\nsamples = 1\nvalue = [1, 0]\nclass = 0", fillcolor="#e58139"] ;
237 -> 238 ;
239 [label="gini = 0.0\nsamples = 2\nvalue = [0, 2]\nclass = 1", fillcolor="#399de5"] ;
237 -> 239 ;
240 [label="gini = 0.0\nsamples = 3\nvalue = [3, 0]\nclass = 0", fillcolor="#e58139"] ;
236 -> 240 ;
241 [label="gini = 0.0\nsamples = 4\nvalue = [0, 4]\nclass = 1", fillcolor="#399de5"] ;
235 -> 241 ;
242 [label="AGE <= 82.15\ngini = 0.095\nsamples = 20\nvalue = [19, 1]\nclass = 0", fillcolor="#e68843"] ;
202 -> 242 ;
243 [label="gini = 0.0\nsamples = 1\nvalue = [0, 1]\nclass = 1", fillcolor="#399de5"] ;
242 -> 243 ;
244 [label="gini = 0.0\nsamples = 19\nvalue = [19, 0]\nclass = 0", fillcolor="#e58139"] ;
242 -> 244 ;
245 [label="gini = 0.0\nsamples = 3\nvalue = [0, 3]\nclass = 1", fillcolor="#399de5"] ;
201 -> 245 ;
246 [label="AGE <= 98.05\ngini = 0.403\nsamples = 25\nvalue = [7, 18]\nclass = 1", fillcolor="#86c3ef"] ;
22 -> 246 ;
247 [label="LSTAT <= 28.805\ngini = 0.497\nsamples = 13\nvalue = [6, 7]\nclass = 1", fillcolor="#e3f1fb"] ;
246 -> 247 ;
248 [label="gini = 0.0\nsamples = 4\nvalue = [0, 4]\nclass = 1", fillcolor="#399de5"] ;
247 -> 248 ;
249 [label="INDUS <= 8.75\ngini = 0.444\nsamples = 9\nvalue = [6, 3]\nclass = 0", fillcolor="#f2c09c"] ;
247 -> 249 ;
250 [label="gini = 0.0\nsamples = 1\nvalue = [0, 1]\nclass = 1", fillcolor="#399de5"] ;
249 -> 250 ;
251 [label="DIS <= 1.509\ngini = 0.375\nsamples = 8\nvalue = [6, 2]\nclass = 0", fillcolor="#eeab7b"] ;
249 -> 251 ;
252 [label="DIS <= 1.45\ngini = 0.5\nsamples = 4\nvalue = [2, 2]\nclass = 0", fillcolor="#ffffff"] ;
251 -> 252 ;
253 [label="gini = 0.0\nsamples = 2\nvalue = [2, 0]\nclass = 0", fillcolor="#e58139"] ;
252 -> 253 ;
254 [label="gini = 0.0\nsamples = 2\nvalue = [0, 2]\nclass = 1", fillcolor="#399de5"] ;
252 -> 254 ;
255 [label="gini = 0.0\nsamples = 4\nvalue = [4, 0]\nclass = 0", fillcolor="#e58139"] ;
251 -> 255 ;
256 [label="DIS <= 1.297\ngini = 0.153\nsamples = 12\nvalue = [1, 11]\nclass = 1", fillcolor="#4ba6e7"] ;
246 -> 256 ;
257 [label="CRIM <= 14.803\ngini = 0.5\nsamples = 2\nvalue = [1, 1]\nclass = 0", fillcolor="#ffffff"] ;
256 -> 257 ;
258 [label="gini = 0.0\nsamples = 1\nvalue = [1, 0]\nclass = 0", fillcolor="#e58139"] ;
257 -> 258 ;
259 [label="gini = 0.0\nsamples = 1\nvalue = [0, 1]\nclass = 1", fillcolor="#399de5"] ;
257 -> 259 ;
260 [label="gini = 0.0\nsamples = 10\nvalue = [0, 10]\nclass = 1", fillcolor="#399de5"] ;
256 -> 260 ;
}